digraph Tree {
node [shape=box, fontname="helvetica"] ;
edge [fontname="helvetica"] ;
0 [label="Q0 <= 0.924\nsquared_error = 162.166\nsamples = 100\nvalue = 91.685"] ;
1 [label="prompt_avg_words <= 191.479\nsquared_error = 103.804\nsamples = 99\nvalue = 92.46"] ;
0 -> 1 [labeldistance=2.5, labelangle=45, headlabel="True"] ;
2 [label="prompt_avg_words <= 19.61\nsquared_error = 65.925\nsamples = 98\nvalue = 93.087"] ;
1 -> 2 ;
3 [label="prompt_avg_words <= 19.267\nsquared_error = 147.056\nsamples = 12\nvalue = 83.333"] ;
2 -> 3 ;
4 [label="total_message_length <= 872.0\nsquared_error = 56.744\nsamples = 11\nvalue = 86.273"] ;
3 -> 4 ;
5 [label="Q3 <= 0.344\nsquared_error = 33.25\nsamples = 4\nvalue = 78.5"] ;
4 -> 5 ;
6 [label="squared_error = 0.0\nsamples = 1\nvalue = 88.0"] ;
5 -> 6 ;
7 [label="total_message_length <= 484.0\nsquared_error = 4.222\nsamples = 3\nvalue = 75.333"] ;
5 -> 7 ;
8 [label="squared_error = 0.0\nsamples = 1\nvalue = 78.0"] ;
7 -> 8 ;
9 [label="avg_example_words_count_per_prompt <= 0.16\nsquared_error = 1.0\nsamples = 2\nvalue = 74.0"] ;
7 -> 9 ;
10 [label="squared_error = 0.0\nsamples = 1\nvalue = 73.0"] ;
9 -> 10 ;
11 [label="squared_error = 0.0\nsamples = 1\nvalue = 75.0"] ;
9 -> 11 ;
12 [label="Q4 <= 0.563\nsquared_error = 15.918\nsamples = 7\nvalue = 90.714"] ;
4 -> 12 ;
13 [label="Q2 <= 0.488\nsquared_error = 0.25\nsamples = 2\nvalue = 85.5"] ;
12 -> 13 ;
14 [label="squared_error = 0.0\nsamples = 1\nvalue = 85.0"] ;
13 -> 14 ;
15 [label="squared_error = 0.0\nsamples = 1\nvalue = 86.0"] ;
13 -> 15 ;
16 [label="total_parentheses_count <= 6.0\nsquared_error = 6.96\nsamples = 5\nvalue = 92.8"] ;
12 -> 16 ;
17 [label="squared_error = 0.0\nsamples = 2\nvalue = 90.0"] ;
16 -> 17 ;
18 [label="english_conjunctions_count <= 6.5\nsquared_error = 2.889\nsamples = 3\nvalue = 94.667"] ;
16 -> 18 ;
19 [label="squared_error = 0.0\nsamples = 1\nvalue = 97.0"] ;
18 -> 19 ;
20 [label="Q5 <= 0.714\nsquared_error = 0.25\nsamples = 2\nvalue = 93.5"] ;
18 -> 20 ;
21 [label="squared_error = 0.0\nsamples = 1\nvalue = 93.0"] ;
20 -> 21 ;
22 [label="squared_error = 0.0\nsamples = 1\nvalue = 94.0"] ;
20 -> 22 ;
23 [label="squared_error = 0.0\nsamples = 1\nvalue = 51.0"] ;
3 -> 23 ;
24 [label="Q8 <= 0.299\nsquared_error = 39.478\nsamples = 86\nvalue = 94.448"] ;
2 -> 24 ;
25 [label="similarity_between_fullpoints <= 0.98\nsquared_error = 79.347\nsamples = 7\nvalue = 87.714"] ;
24 -> 25 ;
26 [label="average_word_length <= 5.461\nsquared_error = 20.5\nsamples = 4\nvalue = 94.0"] ;
25 -> 26 ;
27 [label="Q8 <= 0.2\nsquared_error = 0.25\nsamples = 2\nvalue = 98.5"] ;
26 -> 27 ;
28 [label="squared_error = 0.0\nsamples = 1\nvalue = 98.0"] ;
27 -> 28 ;
29 [label="squared_error = 0.0\nsamples = 1\nvalue = 99.0"] ;
27 -> 29 ;
30 [label="Q8 <= 0.153\nsquared_error = 0.25\nsamples = 2\nvalue = 89.5"] ;
26 -> 30 ;
31 [label="squared_error = 0.0\nsamples = 1\nvalue = 90.0"] ;
30 -> 31 ;
32 [label="squared_error = 0.0\nsamples = 1\nvalue = 89.0"] ;
30 -> 32 ;
33 [label="Q1 <= 0.662\nsquared_error = 34.889\nsamples = 3\nvalue = 79.333"] ;
25 -> 33 ;
34 [label="Q3 <= 0.495\nsquared_error = 0.25\nsamples = 2\nvalue = 83.5"] ;
33 -> 34 ;
35 [label="squared_error = 0.0\nsamples = 1\nvalue = 84.0"] ;
34 -> 35 ;
36 [label="squared_error = 0.0\nsamples = 1\nvalue = 83.0"] ;
34 -> 36 ;
37 [label="squared_error = 0.0\nsamples = 1\nvalue = 71.0"] ;
33 -> 37 ;
38 [label="similarity_between_fullpoints <= 0.924\nsquared_error = 31.572\nsamples = 79\nvalue = 95.045"] ;
24 -> 38 ;
39 [label="total_comfort_count <= 1.5\nsquared_error = 46.49\nsamples = 7\nvalue = 88.286"] ;
38 -> 39 ;
40 [label="Q1 <= 0.556\nsquared_error = 15.04\nsamples = 5\nvalue = 84.6"] ;
39 -> 40 ;
41 [label="squared_error = 0.0\nsamples = 1\nvalue = 78.0"] ;
40 -> 41 ;
42 [label="similarity_between_prompts <= 0.878\nsquared_error = 5.188\nsamples = 4\nvalue = 86.25"] ;
40 -> 42 ;
43 [label="squared_error = 0.0\nsamples = 2\nvalue = 84.0"] ;
42 -> 43 ;
44 [label="average_word_length <= 8.036\nsquared_error = 0.25\nsamples = 2\nvalue = 88.5"] ;
42 -> 44 ;
45 [label="squared_error = 0.0\nsamples = 1\nvalue = 89.0"] ;
44 -> 45 ;
46 [label="squared_error = 0.0\nsamples = 1\nvalue = 88.0"] ;
44 -> 46 ;
47 [label="prompt_avg_words <= 104.981\nsquared_error = 6.25\nsamples = 2\nvalue = 97.5"] ;
39 -> 47 ;
48 [label="squared_error = 0.0\nsamples = 1\nvalue = 95.0"] ;
47 -> 48 ;
49 [label="squared_error = 0.0\nsamples = 1\nvalue = 100.0"] ;
47 -> 49 ;
50 [label="Q8 <= 0.811\nsquared_error = 25.248\nsamples = 72\nvalue = 95.702"] ;
38 -> 50 ;
51 [label="average_word_length <= 5.412\nsquared_error = 22.575\nsamples = 70\nvalue = 96.008"] ;
50 -> 51 ;
52 [label="avg_parentheses_count_per_prompt <= 0.582\nsquared_error = 40.329\nsamples = 15\nvalue = 93.267"] ;
51 -> 52 ;
53 [label="similarity_between_fullpoints <= 0.977\nsquared_error = 42.806\nsamples = 6\nvalue = 87.833"] ;
52 -> 53 ;
54 [label="avg_example_words_count_per_prompt <= 2.267\nsquared_error = 12.25\nsamples = 2\nvalue = 95.5"] ;
53 -> 54 ;
55 [label="squared_error = 0.0\nsamples = 1\nvalue = 99.0"] ;
54 -> 55 ;
56 [label="squared_error = 0.0\nsamples = 1\nvalue = 92.0"] ;
54 -> 56 ;
57 [label="total_parentheses_count <= 6.0\nsquared_error = 14.0\nsamples = 4\nvalue = 84.0"] ;
53 -> 57 ;
58 [label="squared_error = 0.0\nsamples = 1\nvalue = 90.0"] ;
57 -> 58 ;
59 [label="squared_error = 2.667\nsamples = 3\nvalue = 82.0"] ;
57 -> 59 ;
60 [label="Q4 <= 0.695\nsquared_error = 5.877\nsamples = 9\nvalue = 96.889"] ;
52 -> 60 ;
61 [label="response_confusion_total_count <= 1.5\nsquared_error = 0.688\nsamples = 4\nvalue = 99.25"] ;
60 -> 61 ;
62 [label="squared_error = 0.25\nsamples = 2\nvalue = 98.5"] ;
61 -> 62 ;
63 [label="squared_error = 0.0\nsamples = 2\nvalue = 100.0"] ;
61 -> 63 ;
64 [label="average_word_count_per_sentence <= 41.667\nsquared_error = 2.0\nsamples = 5\nvalue = 95.0"] ;
60 -> 64 ;
65 [label="squared_error = 0.25\nsamples = 2\nvalue = 96.5"] ;
64 -> 65 ;
66 [label="squared_error = 0.667\nsamples = 3\nvalue = 94.0"] ;
64 -> 66 ;
67 [label="response_confusion_total_count <= 5.688\nsquared_error = 15.125\nsamples = 55\nvalue = 96.755"] ;
51 -> 67 ;
68 [label="Q8 <= 0.412\nsquared_error = 9.659\nsamples = 36\nvalue = 97.846"] ;
67 -> 68 ;
69 [label="average_word_count_per_sentence <= 24.848\nsquared_error = 2.0\nsamples = 3\nvalue = 93.0"] ;
68 -> 69 ;
70 [label="squared_error = 0.0\nsamples = 1\nvalue = 91.0"] ;
69 -> 70 ;
71 [label="squared_error = 0.0\nsamples = 2\nvalue = 94.0"] ;
69 -> 71 ;
72 [label="Q6 <= 0.48\nsquared_error = 8.026\nsamples = 33\nvalue = 98.287"] ;
68 -> 72 ;
73 [label="squared_error = 28.5\nsamples = 4\nvalue = 95.0"] ;
72 -> 73 ;
74 [label="squared_error = 3.506\nsamples = 29\nvalue = 98.74"] ;
72 -> 74 ;
75 [label="#user_prompts <= 34.176\nsquared_error = 18.95\nsamples = 19\nvalue = 94.687"] ;
67 -> 75 ;
76 [label="similarity_between_fullpoints <= 0.992\nsquared_error = 18.986\nsamples = 5\nvalue = 90.106"] ;
75 -> 76 ;
77 [label="squared_error = 5.03\nsamples = 3\nvalue = 86.843"] ;
76 -> 77 ;
78 [label="squared_error = 0.0\nsamples = 2\nvalue = 95.0"] ;
76 -> 78 ;
79 [label="Q7 <= 0.937\nsquared_error = 8.764\nsamples = 14\nvalue = 96.324"] ;
75 -> 79 ;
80 [label="squared_error = 3.931\nsamples = 11\nvalue = 97.412"] ;
79 -> 80 ;
81 [label="squared_error = 6.222\nsamples = 3\nvalue = 92.333"] ;
79 -> 81 ;
82 [label="Q8 <= 0.924\nsquared_error = 1.0\nsamples = 2\nvalue = 85.0"] ;
50 -> 82 ;
83 [label="squared_error = 0.0\nsamples = 1\nvalue = 84.0"] ;
82 -> 83 ;
84 [label="squared_error = 0.0\nsamples = 1\nvalue = 86.0"] ;
82 -> 84 ;
85 [label="squared_error = 0.0\nsamples = 1\nvalue = 31.0"] ;
1 -> 85 ;
86 [label="squared_error = -0.0\nsamples = 1\nvalue = 15.0"] ;
0 -> 86 [labeldistance=2.5, labelangle=-45, headlabel="False"] ;
}
